-0.21756092810954641425524869191576726734638214111328,0.28778965114845356243478136093472130596637725830078,0.38488928262406424396502302442968357354402542114258,0.22436697123920243401862251175771234557032585144043,-0.32236665653047330559743954836449120193719863891602,0.23199038552492232123647397656895918771624565124512,-0.12950148002162772953305136525159468874335289001465,-0.21180103279877920963158999256847891956567764282227,-0.028467689331396300173038227399047173094004392623901,0.096742750844708555457707177538395626470446586608887,0.064359923914697608759993840976676438003778457641602,0.29873419076822554929506736698385793715715408325195,0.10147022400655948681791329590851091779768466949463,0.23905786690226868418385208769905148074030876159668,-0.081986371501562627095438529067905619740486145019531,0.27230126883987471053671924892114475369453430175781,-0.26979723217998619055890685558551922440528869628906,0.0095023539948513625896797663017423474229872226715088,-0.29367468272489860581231368996668606996536254882813,0.11187805147855393872458051873763906769454479217529,-0.16480312605004043824408199725439772009849548339844,0.25130973885254459521121361831319518387317657470703,0.31753012598574170688436879572691395878791809082031,0.20675034512485590543207081282162107527256011962891,-0.17143891027998311993307822831411613151431083679199,0.0056048498175507851723486929529371991520747542381287,-0.12177084583014256835564737002641777507960796356201,-0.10422021873990054696701434977512690238654613494873,-0.090352010187281367459277703346742782741785049438477,-0.0084813070987471254891243432894043507985770702362061,-0.35981918610608415454166220115439500659704208374023,-0.067043528247585137957997858393355272710323333740234,0.23275561796796173652523975761141628026962280273438,0.28298965315691104738249350702972151339054107666016,0.12698725719635464703749505588348256424069404602051,0.60171394350957230212628701337962411344051361083984,-0.32745455945370116612735955641255713999271392822266,-0.24584055973014792839670406010554870590567588806152,-0.10875235822152971854048786326529807411134243011475,0.16719238640042607957347797764668939635157585144043,-0.21824638473903362756445289960538502782583236694336,0.10290981777779453776311413548683049157261848449707,0.20393835798695744698783016701781889423727989196777,0.012091854954071891772859892455471708672121167182922,-0.40731861823767212538172088898136280477046966552734,0.2382158100565693048533688624956994317471981048584,-0.09814361074455739408772814158510300330817699432373,0.040441694013378957917037581637487164698541164398193,0.12132401639747132648938787724546273238956928253174,0.20647006885415747357015447960293386131525039672852,-0.049132974820882371891350715031876461580395698547363,0.20324698777579103259327553132607135921716690063477,-0.066986068214482177851643029953265795484185218811035,0.40688578168217237607251490771886892616748809814453,-0.12943628277378996238589081713143968954682350158691,0.35423070722431959644893595395842567086219787597656,0.031347894877600798735350906554231187328696250915527,0.069367493191206441860430231827194802463054656982422,-0.23713490966105549295761534267512615770101547241211,0.18481244830259080380585601233178749680519104003906,0.095839014252360202328340221811231458559632301330566,0.17964801561096854776167219824856147170066833496094,0.32978396953896127463679022184805944561958312988281,0.19876174905951402016590634502790635451674461364746,-0.08159753559653733223644422878351178951561450958252,-0.0087686781733702003766017796237974835094064474105835,-0.15666055097377726279539444931288016960024833679199,0.10883906334376199087632386408586171455681324005127,0.008328390519027152605335828638999373652040958404541,-0.036461964435301690012902753323942306451499462127686,-0.39417230215365550716200004899292252957820892333984,0.10934882470974885415593291781988227739930152893066,0.20305518513336093255894354570045834407210350036621,0.37979733413808391961907773293205536901950836181641,0.15130078433415289351771093606657814234495162963867,0.39923217559341239724091110474546439945697784423828,-0.24704999036046312865799734481697669252753257751465,0.1342133199407957444559968962494167499244213104248,-0.15723432125630176781072577796294353902339935302734,0.037402303957702526249207153341558296233415603637695,-0.186457821272000501267029903829097747802734375,0.085978777651126589431918034733826061710715293884277,0.15454726142098704211313986434106482192873954772949,-0.013564853875839827726523800777158612618222832679749,0.013203580513171586305332105837351264199241995811462,0.37716770388175158146282228699419647455215454101563,0.15998592520071289180272344765398884192109107971191,-0.1013707253841062139176898426740081049501895904541,-0.17440375881725986295656127822439884766936302185059,0.17795750803406321094435327268001856282353401184082,-0.025914618837188742317412248894470394589006900787354,-0.087081739851934000795630197444552322849631309509277,0.14164127127446282661260568147554295137524604797363,0.30489572664068614882282304279215168207883834838867,0.11047638870644400921339212118255090899765491485596,0.13851300104702435334047549986280500888824462890625,-0.069325469217794880028016279993607895448803901672363,-0.13026997268722925737982620830734958872199058532715,-0.13170814461760038671656047881697304546833038330078,-0.20384304932567051671377100774407153949141502380371,-0.16475287782161118776969033206114545464515686035156,0.096911396319690742973129715664981631562113761901855,0.29166907239290251752095173287671059370040893554688,-0.13845613385069302503360688660904997959733009338379,-0.45193970357828111561460104894649703055620193481445,0.13523532497778942285115988397592445835471153259277,-0.3652495952503375664655038690398214384913444519043,-0.0056628025774703829101075491792016691761091351509094,0.072922633292887797940018401732231723144650459289551,-0.11257018030923310325519537400396075099706649780273,-0.36294075905247857871671612883801572024822235107422,0.29386192108587955162946059317619074136018753051758,0.31007353361407247183123558897932525724172592163086,0.29312779390465182327574211740284226834774017333984,-0.26292362276577591062576289004937279969453811645508,0.39733555454152874597539835122006479650735855102539,-0.41546334598804168791730262455530464649200439453125,-0.1956113866921054267322688247077167034149169921875,-0.042886704485234308781294032542064087465405464172363,-0.00049831955675486974341459323056824359809979796409607,-0.1047577264018654391586338192610128317028284072876,0.26113205157252744603724181615689303725957870483398,0.55288475469186304511737262146198190748691558837891,0.1643694273979143527508739452969166450202465057373,-0.44995117391847821997075129729637410491704940795898,0.20686140701626226645615247434761840850114822387695,-0.39588734146690057746909019442682620137929916381836,0.015942111090268086537324876417187624610960483551025,-0.013761958500733638063873165435779810650274157524109,-0.27383179744896907203965952248836401849985122680664,-0.44324206996767895327948849626409355551004409790039,0.34890509145988490846690410762676037847995758056641,0.40561430469805564991148116860131267458200454711914,0.57838457284269906288898255297681316733360290527344,0.058299147816272094135836567829755949787795543670654,0.69704806270938046708351976121775805950164794921875,-0.014387594806365840496842345430650311755016446113586,-0.12056591170416705582901784055138705298304557800293,-0.34146656366363853374323866773920599371194839477539,0.18095508873130500271386722488387022167444229125977,0.039958106156756330318291503544969600625336170196533,-0.037000727291758475634431135858903871849179267883301,0.10412480183988812032502835336345015093684196472168,-0.2166463979910958070895787841436685994267463684082,-0.22613860239735278367945170430175494402647018432617,0.078767548011395210894036722493183333426713943481445,-0.29525587782571405259801622378290630877017974853516,-0.1271431553490043053766811453897389583289623260498,0.05633406859001947875054128189731272868812084197998,0.16464423059002805671546809662686428055167198181152,-0.048594838074884676160092311647531460039317607879639,0.21762663137472393337645826250081881880760192871094,-0.12810552273181832760862164377613225951790809631348,0.11070825571719582203211729165559518150985240936279,0.1529010717223226178962391941240639425814151763916,0.13536383774750623820715134115744149312376976013184,-0.39886083969964564177601573646825272589921951293945,-0.16582050955588528706741158202930819243192672729492,-0.32922414534086502646559324603003915399312973022461,-0.26421528831822477245694358316541183739900588989258,0.023603496340646682588593208151905855629593133926392,0.15134099904132089497998947535961633548140525817871,0.53914674573378273958468298587831668555736541748047,-0.061839443361348472860683500584855210036039352416992,-0.29761720444423356290997162432176992297172546386719,0.43475233963391490821237539421417750418186187744141,-0.063845167791511239774315811246196972206234931945801,-0.24051949845543413308845970277616288512945175170898,-0.090086495612382161413123071724839974194765090942383,-0.094998060020988234208871858754719141870737075805664,-0.034489266378492103304331806157279061153531074523926,0.02260065831372569042367892677702911896631121635437,-0.08159307339726915020428066327440319582819938659668,0.25541834477054892182934509037295356392860412597656,-0.22100564808457978660527487591025419533252716064453,0.48988318423344895391480235957715194672346115112305,0.045777059398629839359617932359469705261290073394775,-0.1009518446518981593662545037659583613276481628418,-0.16388275944062605238293883758160518482327461242676,0.041618220029755785549507862697282689623534679412842,-0.16509329238180650567535678874264704063534736633301,0.23589854322212286397153491179778939113020896911621,0.29254184521168580257466373950592242181301116943359,-0.15677248511430777466735264624730916693806648254395,-0.21381204953683005665077132562146289274096488952637,0.11305411910362457572620797918716561980545520782471,-0.11114212247994102733539278915486647747457027435303,-0.10788789692781332318904929934433312155306339263916,0.16787247593621670849195481878268765285611152648926,-0.11291575043388267507449285176335251890122890472412,-0.41636596342018089567105221249221358448266983032227,0.17552113177342201777442198817880125716328620910645,0.37231792445090267085205937291902955621480941772461,0.40877507416057523581542909596464596688747406005859,-0.15385410188220638438849618978565558791160583496094,0.31298201619334675704919845884433016180992126464844,-0.33110004503854467694523577847576234489679336547852,-0.18557299745929511924913413167814724147319793701172,-0.25768951582867261063114483476965688169002532958984,-0.27924464209528010449901103129377588629722595214844,-0.24341785936382426269730672174773644655942916870117,0.18492653935942329757047275506920414045453071594238,0.54984658718958656642428195482352748513221740722656,0.075343523809441828587019074348063440993428230285645,-0.16067354811903208910983664736704668030142784118652,0.45602461466368382492220234780688770115375518798828,0.0552007113160709814159154973367549246177077293396,-0.15497030933070202185497521440993295982480049133301,-0.26184454091103565032128130951605271548032760620117,-0.13814368876932542340441045780607964843511581420898,-0.48228449696173419924960512616962660104036331176758,0.048288422288135790516605538869043812155723571777344,0.011069335630189995264838209720892336918041110038757,0.52782343166990708382968477963004261255264282226563,-0.15288496671745702149003420799999730661511421203613,0.50020416726587901834477634110953658819198608398438,-0.12090430864700864310723460448571131564676761627197,-0.23038342912372156146005863774917088449001312255859,-0.21280052643261568312560427784774219617247581481934,0.20420320592248900060106109322077827528119087219238,-0.033293941903593790576643129952572053298354148864746,0.16579152099780872231526984705851646140217781066895,0.48256917348204209083917248790385201573371887207031,-0.019515359509353558814526152787038881797343492507935,-0.20643525923101785357616222427168395370244979858398,0.37846604880293843731209335601306520402431488037109,-0.20926676666698623696660774839983787387609481811523,0.17719422070462606533247651441342895850539207458496,0.08545520545556659075536742875556228682398796081543,-0.18042872970588214043274888354062568396329879760742,-0.15290643817852300756499062117654830217361450195313,0.24999937270510852460603246072423644363880157470703,0.37559806707136539349889403638371732085943222045898,0.55378917185580844861902960474253632128238677978516,-0.29163752095569189792811926054127980023622512817383,0.37928768824649605750920500213396735489368438720703,-0.10815743847775104169439686074838391505181789398193,-0.056254288224522344674660701002721907570958137512207,-0.34816632861367879936409508445649407804012298583984,-0.23016944504287686901200515876553254202008247375488,-0.075717341019446715577601025870535522699356079101563,0.089400371638802322848960102419368922710418701171875,0.35932900913850923663162006960192229598760604858398,-0.1702666381234706760583463847069651819765567779541,-0.08071606498925884554118681535328505560755729675293,0.13941439480752809698671512705914210528135299682617,-0.23156834362028738683036976908624637871980667114258,-0.04834744497547280306370964808593271300196647644043,0.10758072301388837965774314398004207760095596313477,0.19044959246851739242956114139815326780080795288086,-0.34769400586548770970551913706003688275814056396484,-0.036367057658634543981790443467616569250822067260742,-0.088644526614048452239913444827834609895944595336914,0.00062033926780585358154440633882131805876269936561584,-0.21693187328957541648577489468152634799480438232422,0.087640278281341590926878382106224307790398597717285,-0.008727764440462932454822819750006601680070161819458,0.01984349179415302935614029422595194773748517036438,0.18680544260011724966297208538890117779374122619629,-0.0017132489151526913723905254371970841020811349153519,-0.043650006786501834021851919942491804249584674835205,-0.044953763066503220346969982301743584685027599334717,0.52902110327353468743893927239696495234966278076172,0.058213428379818743518825385763193480670452117919922,-0.31696897084350728057700052886502817273139953613281,0.36191237053407943058402906899573281407356262207031,-0.068741183931392474404376002894423436373472213745117,-0.16248551083655882187883889855584129691123962402344,-0.23766424787902623583235595106089022010564804077148,0.03484815536160249666020050085535331163555383682251,-0.41383957434489265780896971591573674231767654418945,0.18262071912440727694537656589091056957840919494629,0.027597104697432657538502809302372043021023273468018,0.47682694383462770337800407105532940477132797241211,-0.29070579489728876065868234945810399949550628662109,0.42310306813264852987543918061419390141963958740234,-0.52169428490357705463509319088188931345939636230469,-0.026442174571318470543968004449197906069457530975342,-0.49297295824325576552027428078872617334127426147461,0.16709769294538612260936361053609289228916168212891,0.022631022569215571149658927652126294560730457305908,0.24007950693800858554816102241602493450045585632324,0.17841703966878638687454383671138202771544456481934,0.23979390785776233396831003119586966931819915771484,-0.33433570271633217263484993964084424078464508056641,-0.030974698368835325290593374347736244089901447296143,-0.2447064847318703162404318618428078480064868927002,0.14564363308862890433736936302011599764227867126465,-0.11592742800225412647119327402833732776343822479248,-0.24603675908119712611998863849294139072299003601074,0.091598604214016582369950469910691026598215103149414,0.22944804322521888950703328191593755036592483520508,0.038336321714336339672168918468742049299180507659912,0.34072438901511992170867415552493184804916381835938,-0.20088338480356263127113436439685756340622901916504,0.24333419947258758120334221075609093531966209411621,-0.18119030387429244099983804971998324617743492126465,-0.030221708686347697331298078893269121181219816207886,-0.14198424765905623412542979622230632230639457702637,0.18742146252796573757670728355151368305087089538574,0.22080847695307551092902542677620658650994300842285,0.27037642942440570648088282723620068281888961791992,0.49595028689515452402503115081344731152057647705078,0.058387888400270614164266902434974326752126216888428,-0.20968125970226450527356121256161713972687721252441,0.29237979646769673980344350638915784657001495361328,-0.23792291353242819851310230205854168161749839782715,-0.15215373905586973557468866147246444597840309143066,-0.23116241099090728550180529055069200694561004638672,-0.052427492041741109718433477837606915272772312164307,-0.29649854639787304178000226784206461161375045776367,0.054844798273405333255414717541498248465359210968018,0.24987990741500742952752034398145042359828948974609,0.48738267747795777085073609669052530080080032348633,0.1306663439881553812060843711151392199099063873291,0.67807250302555910348445422641816549003124237060547,-0.28548169673374901300633155187824741005897521972656,-0.061433278979858368940014656800485681742429733276367,-0.2093853695649389723421052167395828291773796081543,0.071600706653009951740962435451365308836102485656738,0.23112338135864798904783867783407913520932197570801,-0.12827132660580692347096487537783104926347732543945,-0.16759416976095717344286128991370787844061851501465,0.21519372196625097259925496473442763090133666992188,-0.16155246943080017740790310654119821265339851379395,0.10852880851142454599056463848683051764965057373047,0.20592251124699714748267354025301756337285041809082,-0.19278801075315094015749650679936166852712631225586,-0.19141861009898372691928614131029462441802024841309,0.10787503267113038307734029785933671519160270690918,0.057495407781259597057577082068746676668524742126465,0.22174267946467024481549401571101043373346328735352,-0.088717869632055565420891696248872904106974601745605,0.170858309165819122199536650441586971282958984375,-0.031311074664575874737515448487101821228861808776855,-0.055463602232558951998786511694561340846121311187744,-0.19510045792734576064475504608708433806896209716797,0.01518691898493638482714462867306792759336531162262,0.1412821101610671203907543258537771180272102355957,-0.047650186436148135593615648986087762750685214996338,-0.18132806721340360978089734089735429733991622924805,0.011601986856506507975184128156342922011390328407288,-0.069357914943326243184529289464990142732858657836914,0.87054852850230934890873868425842374563217163085938,1.0251137119341851011711241881130263209342956542969,-0.89622705402449520661889437178615480661392211914063,0.93959628606694789443309900889289565384387969970703,0.94313389738001629503116873820545151829719543457031,-1.0238865875170954922168675693683326244354248046875,0.89777988344157133582257301895879209041595458984375,1.0599487693528752974003737108432687819004058837891,-0.69778216021236960653340020144241861999034881591797,0.17399338179340137489070627907494781538844108581543,0.50271358877335814430153959619929082691669464111328,-0.36830234991996929627688928121642675250768661499023,0.46038390928794048484462564374553039669990539550781,0.53907473298321995081039403885370120406150817871094,-0.11682707182262981604470297725129057653248310089111,-0.057443260150849335954337249177115154452621936798096,-0.093531324383995001481295616940769832581281661987305,-0.21518058317451288496968686558830086141824722290039,-0.10773403106479996493849426997257978655397891998291,0.12770284890074379280378025214304216206073760986328,0.035216754816801892902233817039814312011003494262695,0.70691789461016396600712141662370413541793823242188,0.63674589461901864861914646098739467561244964599609,-0.86445233371328622506979399986448697745800018310547,0.25609965878031892838606609075213782489299774169922,0.4856095805969317669159579509141622111201286315918,-0.69177632339652317394751435131183825433254241943359,0.5092370184558223655812980723567306995391845703125,0.44554213514021850928159551585849840193986892700195,-0.61364772792288813096917010625475086271762847900391,1.0540257819948199990989223806536756455898284912109,1.0162999232469562826963738189078867435455322265625,-1.1695651963252042815355480342986993491649627685547,0.69452950641029898015688104351283982396125793457031,0.80132913125822791133856526357703842222690582275391,-0.86094002522665624699271802455768920481204986572266,0.74797028495890660604317190518486313521862030029297,0.69443596719592060040326941816601902246475219726563,-0.75334647682101585353109385323477908968925476074219,0.1013839561109033671204571191992727108299732208252,0.14109934044367949956821917112392839044332504272461,0.016382712668998898608574421587036340497434139251709,0.63976949869154042804808568689622916281223297119141,0.55287884056247005304385311319492757320404052734375,-0.46467785325035904087087601510575041174888610839844,0.65689589534545300697487846264266408979892730712891,0.82770819837464559842743483386584557592868804931641,-0.77089512225058764993690374467405490577220916748047,-0.025959936354351065279644217298482544720172882080078,-0.016957766371201724725503723334441019687801599502563,0.17354458943173164953144294031517347320914268493652,0.37697795137885159455493067071074619889259338378906,0.76707478316048705035967714138678275048732757568359,-0.46629963825461734350241727042885031551122665405273,0.84242241191088085283666941904812119901180267333984,0.86274121087243760275242721036192961037158966064453,-0.84515515206688418547997798668802715837955474853516,-1.1154765591250925815813843655632808804512023925781,-0.81836241767429807048017664783401414752006530761719,1.2081875032515332346605418933904729783535003662109